digraph Tree {
node [shape=box, style="rounded", color="black", fontname=helvetica] ;
edge [fontname=helvetica] ;
0 [label="AvgGoodHighClaim <= 4.6\nmse = 0.0\nsamples = 15\nvalue = 0.2"] ;
1 [label="AvgOpenPlayPass <= 18.1\nmse = 0.0\nsamples = 7\nvalue = 0.0"] ;
0 -> 1 [labeldistance=2.5, labelangle=45, headlabel="True"] ;
2 [label="mse = 0.0\nsamples = 6\nvalue = 0.0"] ;
1 -> 2 ;
3 [label="mse = 0.0\nsamples = 1\nvalue = 0.2"] ;
1 -> 3 ;
4 [label="AvgKeeperPickUp <= 5.6\nmse = 0.0\nsamples = 8\nvalue = 0.3"] ;
0 -> 4 [labeldistance=2.5, labelangle=-45, headlabel="False"] ;
5 [label="AvgLongPassOwnToOppSuccess <= 0.0\nmse = 0.0\nsamples = 3\nvalue = 0.4"] ;
4 -> 5 ;
6 [label="mse = 0.0\nsamples = 1\nvalue = 0.3"] ;
5 -> 6 ;
7 [label="mse = 0.0\nsamples = 2\nvalue = 0.4"] ;
5 -> 7 ;
8 [label="avgAccBackZonePass <= 27.6\nmse = 0.0\nsamples = 5\nvalue = 0.2"] ;
4 -> 8 ;
9 [label="mse = 0.0\nsamples = 4\nvalue = 0.2"] ;
8 -> 9 ;
10 [label="mse = -0.0\nsamples = 1\nvalue = 0.2"] ;
8 -> 10 ;
}